tree
version=v4
num_class=1
num_tree_per_iteration=1
label_index=0
max_feature_idx=3
objective=lambdarank
feature_names=Column_0 Column_1 Column_2 Column_3
feature_infos=[898.5:2223] [-3.0030000000000001:7.2239999999999993] [1:20] [1:20]
tree_sizes=881 1229 1202 1182 1173 1179 1155 1188 1164 1132 1158 1143 1169 1134 1181 1150 1174 1178 1173 996 1157 1164 1148 1178 1176 1134 964 1159 991 973 973 1146 1182

Tree=0
num_leaves=8
num_cat=0
split_feature=3 0 3 0 1 0 0
split_gain=245.986 9.35212 7.53378 4.1174 0.965717 0.308213 0.116777
threshold=6.8333333333333348 1768.5000000000002 4.5000000000000009 1611.7500000000002 -0.20783333333333562 1508.2500000000002 1539.7500000000002
decision_type=2 2 2 2 2 2 2
left_child=2 -2 5 6 -5 -1 -4
right_child=1 -3 3 4 -6 -7 -8
leaf_value=0 -0.16372327348624921 0 -0.023981224072493409 0 0.084055844942706626 0.15257043464599926 0
leaf_weight=0.036998219788073494 51.166934883221984 2.2814972363412371 1.3153994306921983 0.30522081255913036 13.245552323758597 46.856247071176767 2.6934406012296677
leaf_count=1 943 27 28 6 106 201 36
internal_value=0 -0.154932 0.128742 0.0518927 0.0790954 0.152305 0
internal_weight=117.901 53.4484 64.4529 17.5596 13.5508 46.8932 4.00884
internal_count=1348 970 378 176 112 202 64
is_linear=0
shrinkage=0.0983118


Tree=1
num_leaves=11
num_cat=0
split_feature=0 1 0 0 3 3 1 2 0 1
split_gain=81.0001 25.0874 9.16211 8.78036 11.9587 8.96613 7.53952 7.3087 5.67908 3.90909
threshold=1493.2500000000002 0.16649999999999684 1662.7500000000002 1799.2500000000002 3.166666666666667 4.166666666666667 -2.4590000000000001 5.5000000000000009 1662.7500000000002 0.39700000000000085
decision_type=2 2 2 2 2 2 2 2 2 2
left_child=-1 2 6 4 8 7 -2 -6 -3 -5
right_child=1 3 -4 9 5 -7 -8 -9 -10 -11
leaf_value=-0.1270763026650433 0.11999717179315442 -0.0017912888002394891 0.084136265704823382 0 -0.13752413742201136 -0.013695449096698193 -0.010491147986251835 0 0.094420388220132379 0.069477559843649936
leaf_weight=39.320347510278225 4.3114704787731197 6.8176457285881034 64.872091762721539 13.324334155768158 14.654867291450502 33.845531344413757 21.809773363173008 3.6732895374298087 8.556461498141287 15.130201786756514
leaf_count=705 6 11 115 35 31 309 71 6 10 49
internal_value=0 0.027067 0.0640761 -0.00618092 -0.027126 -0.0512202 0.00611771 -0.107373 0.0411937 0.0363143
internal_weight=226.316 186.996 90.9933 96.0023 67.5478 52.1737 26.1212 18.3282 15.3741 28.4545
internal_count=1348 643 192 451 367 346 77 37 21 84
is_linear=0
shrinkage=0.0983118


Tree=2
num_leaves=11
num_cat=0
split_feature=3 3 1 1 3 1 2 3 1 0
split_gain=67.614 7.13547 7.92116 7.34662 4.20933 3.52536 3.46633 3.45307 3.45089 2.82211
threshold=6.5000000000000009 1.4166666666666667 0.0090000000000002526 0.0021666666666651504 4.5000000000000009 0.40333333333333604 4.5000000000000009 3.8333333333333335 1.6893333333333354 1652.2500000000002
decision_type=2 2 2 2 2 2 2 2 2 2
left_child=1 3 -3 -1 7 -6 -2 9 -7 -4
right_child=6 2 4 -5 5 8 -8 -9 -10 -11
leaf_value=0.12816210748139062 0 -0.035998794333310116 0 0 0.040423826366182532 -0.055086637525172705 -0.096768414749713066 0.085118920697512659 0.048052134897939858 0.042148332451189929
leaf_weight=15.078919798135759 3.8185014612972727 14.296676896512507 15.482179593294857 6.1370387673377982 11.925577688962223 13.111247172579166 52.331494392827153 21.903341783210635 1.5751681327819831 37.470471573993564
leaf_count=17 37 36 38 10 46 91 953 53 1 66
internal_value=0 0.0372442 0.0249678 0.0925584 0.0356477 0 -0.090248 0.0475131 -0.029703 0.0274675
internal_weight=193.131 136.981 115.765 21.216 101.468 26.612 56.15 74.856 14.6864 52.9527
internal_count=1348 358 331 27 295 138 990 157 92 104
is_linear=0
shrinkage=0.0983118


Tree=3
num_leaves=11
num_cat=0
split_feature=3 1 0 3 1 1 0 0 3 0
split_gain=64.2067 7.62941 4.97291 3.75835 2.21835 1.57756 2.54775 1.59889 2.10266 1.13616
threshold=6.5000000000000009 0.10850000000000172 1524.7500000000002 11.500000000000002 0.61983333333333246 0.12266666666666261 1652.2500000000002 2044.5000000000002 5.5000000000000009 1799.2500000000002
decision_type=2 2 2 2 2 2 2 2 2 2
left_child=1 2 -1 4 -2 -3 -7 8 -8 -6
right_child=3 5 -4 -5 9 6 7 -9 -10 -11
leaf_value=-0.0066376016815748841 0 -0.02155339483034012 0.082139195961507983 -0.10913461916035531 -0.071608009614960555 0 0.050539569358884789 0 0 0
leaf_weight=2.3664771169424048 11.344241265207531 3.8749216049909583 45.522982753813267 33.519462696276605 13.489387428387996 18.788674579933286 36.001117084175348 6.4207092821598044 2.9280751645565024 0.56725170463323671
leaf_count=8 132 8 102 624 231 99 101 18 22 3
internal_value=0 0.0424368 0.073691 -0.0830321 -0.0392194 0.0170933 0.0226403 0.0354586 0.0430322 -0.0646766
internal_weight=174.823 115.903 47.8895 58.9203 25.4009 68.0135 64.1386 45.3499 38.9292 14.0566
internal_count=1348 358 110 990 366 248 240 141 123 234
is_linear=0
shrinkage=0.0983118


Tree=4
num_leaves=11
num_cat=0
split_feature=3 3 0 0 2 1 0 0 1 1
split_gain=58.7887 4.1247 3.51165 2.29775 2.03539 0.945012 1.28355 5.62309 3.51906 1.69165
threshold=6.166666666666667 1.4166666666666667 1765.5000000000002 1662.7500000000002 3.5000000000000004 0.024166666666670705 1816.5000000000002 1847.2500000000002 0.34466666666666396 0.39700000000000085
decision_type=2 2 2 2 2 2 2 2 2 2
left_child=1 -1 4 -3 -2 -5 8 -8 -7 -9
right_child=2 3 -4 5 -6 6 7 9 -10 -11
leaf_value=0.094257958053358654 0 0 0 0 -0.092943519012113424 0.078268329870894285 -0.063512684809518369 0.0068146798902145094 0 0.079724915217883829
leaf_weight=15.871965691447256 1.7651320472359646 26.1583232562989 4.1339788138866416 5.9534672126173964 49.033744556829333 24.523253880441192 4.4453474581241634 16.154946908354763 6.0071095488965502 8.587151572108267
leaf_count=27 19 122 36 22 961 50 11 44 33 23
internal_value=0 0.042167 -0.0822011 0.030451 -0.0892172 0.0403471 0.0440425 0.017673 0.0620862 0.0412131
internal_weight=162.634 107.702 54.9329 91.8296 50.7989 65.6713 59.7178 29.1874 30.5304 24.7421
internal_count=1348 332 1016 305 980 183 161 78 83 67
is_linear=0
shrinkage=0.0983118


Tree=5
num_leaves=11
num_cat=0
split_feature=3 3 0 0 1 0 1 0 0 0
split_gain=48.0979 9.16667 2.77297 2.77884 1.20385 0.746587 0.649415 0.715858 0.980588 0.445685
threshold=7.416666666666667 4.5000000000000009 1698.7500000000002 1682.2500000000002 0.40333333333333604 1823.2500000000002 0.062999999999999959 1915.5000000000002 1765.5000000000002 2207.2500000000005
decision_type=2 2 2 2 2 2 2 2 2 2
left_child=1 2 3 -1 6 -2 -3 8 -8 -6
right_child=5 4 -4 -5 9 -7 7 -9 -10 -11
leaf_value=0.034757256837779311 -0.085304461652601082 0 0.072050806491583769 -0.040859479315054861 -0.031041281913142049 0 0 0 0.061735970743754247 0
leaf_weight=27.957753192633394 45.184615986421704 4.6447950713336459 45.60303233936429 2.8842424824833861 15.050160098820927 0.53988133370876212 3.8466543480753881 1.7686245590448368 5.5913692340254784 1.1903548836708058
leaf_count=83 919 28 108 11 138 5 26 12 16 2
internal_value=0 0.0356264 0.0542506 0.0207777 -0.00295666 -0.083884 0.00817985 0.0249527 0.0376547 -0.0253094
internal_weight=154.261 108.537 76.445 30.842 32.092 45.7245 15.8514 11.2066 9.43802 16.2405
internal_count=1348 424 202 94 222 924 82 54 42 140
is_linear=0
shrinkage=0.0983118


Tree=6
num_leaves=11
num_cat=0
split_feature=3 3 0 0 0 0 1 0 2 1
split_gain=39.4144 5.39504 0.846112 1.29744 0.722173 1.97341 0.808745 0.674024 0.668899 0.367132
threshold=7.416666666666667 4.5000000000000009 1749.7500000000002 1915.5000000000002 1959.0000000000002 1893.0000000000002 0.48250000000000176 1950.0000000000002 2.5000000000000004 -1.3250000000000026
decision_type=2 2 2 2 2 2 2 2 2 2
left_child=1 4 8 -4 5 6 -1 -2 -3 -10
right_child=7 2 3 -5 -6 -7 -8 -9 9 -11
leaf_value=0.044442006839015967 -0.07831282988124412 0 0.038665875360382178 0 0.088656277915837606 0 0 0 0 -0.034701922242269638
leaf_weight=55.724979143589735 43.712113799527287 1.4079379513859773 9.5782206989824754 5.1562893055379382 10.814227029681204 4.2646461576223365 2.6458892971277228 0.36965816468000312 0.49426272884011169 12.177546059712766
leaf_count=152 921 8 41 33 24 12 14 3 3 137
internal_value=0 0.0334884 0 0.0133649 0.0475532 0.0365307 0.041882 -0.0770491 -0.0192026 -0.0298851
internal_weight=146.346 102.264 28.8143 14.7345 73.4497 62.6355 58.3709 44.0818 14.0797 12.6718
internal_count=1348 424 222 74 202 178 166 924 148 140
is_linear=0
shrinkage=0.0983118


Tree=7
num_leaves=11
num_cat=0
split_feature=0 3 3 0 0 1 0 1 1 0
split_gain=31.8866 4.03382 1.80281 0.82629 1.54257 1.5429 0.862825 0.686231 0.936196 0.460357
threshold=1521.7500000000002 4.5000000000000009 4.166666666666667 1662.7500000000002 1599.0000000000002 0.47633333333333167 2078.2500000000005 0.34466666666666396 0.40333333333333604 1614.7500000000002
decision_type=2 2 2 2 2 2 2 2 2 2
left_child=2 3 -1 4 -2 9 7 -5 -9 -6
right_child=1 -3 -4 6 5 -7 -8 8 -10 -11
leaf_value=0 0.039519766376968808 0 -0.078514409382050732 0.061312635989678295 0 0.029327646500846686 0 -0.019665113777418763 0.039860345373230022 -0.056125709524107698
leaf_weight=2.1474047601222983 10.282040171325209 31.382173266261816 37.831406712532043 38.762734223157167 2.6194381043314916 2.5273521244525909 3.4252531081438056 2.3837940394878379 4.3101267442107201 4.6476769633591175
leaf_count=6 31 319 828 95 9 6 10 13 11 20
internal_value=0 0.0295886 -0.0735511 0.0427823 0.010322 -0.00214021 0.0518547 0.0554037 0 -0.0393101
internal_weight=140.319 100.341 39.9788 68.9584 20.0765 9.79447 48.8819 45.4567 6.69392 7.26712
internal_count=1348 514 834 195 66 35 129 119 24 29
is_linear=0
shrinkage=0.0983118


Tree=8
num_leaves=11
num_cat=0
split_feature=3 1 0 3 1 2 0 1 0 0
split_gain=28.852 2.55603 2.36819 1.07961 1.02055 0.892414 0.818904 0.435193 0.152144 0.191479
threshold=6.166666666666667 0.16649999999999684 1799.2500000000002 4.8333333333333348 -1.7756666666666636 3.5000000000000004 1524.7500000000002 0.20483333333333795 1637.2500000000002 1682.2500000000002
decision_type=2 2 2 2 2 2 2 2 2 2
left_child=1 6 4 7 -2 -6 -1 -3 -9 -10
right_child=2 3 -4 -5 5 -7 -8 8 9 -11
leaf_value=0 0 0 0 -0.0064701474159472539 0 -0.070243539029038807 0.055059804340968209 0 0.061761446082055575 0.0085121813038553304
leaf_weight=2.3128873296082011 0.83155279234051604 2.0942514836788204 3.107453439384698 9.5039305444806796 1.5771545860916365 43.53492393810302 42.541865766048431 5.4928060974925783 4.6127762794494656 18.652318634092808
leaf_count=10 8 13 27 81 19 962 122 31 12 63
internal_value=0 0.0345075 -0.0596147 0.0097842 -0.0654387 -0.0676432 0.0519956 0.021033 0.0248383 0.0286383
internal_weight=134.262 85.2108 49.0511 40.3561 45.9436 45.1121 44.8548 30.8522 28.7579 23.2651
internal_count=1348 332 1016 200 989 981 132 119 106 75
is_linear=0
shrinkage=0.0983118


Tree=9
num_leaves=11
num_cat=0
split_feature=3 2 1 0 3 2 0 0 1 0
split_gain=23.6828 2.96859 1.86813 1.69021 1.15553 0.706943 0.570117 0.553012 0.267863 0.74955
threshold=7.8333333333333348 3.5000000000000004 0.34466666666666396 1749.7500000000002 3.8333333333333335 7.5000000000000009 1536.0000000000002 2044.5000000000002 0.60616666666666685 1524.7500000000002
decision_type=2 2 2 2 2 2 2 2 2 2
left_child=1 2 6 5 -5 8 -1 -6 9 -3
right_child=-2 3 -4 4 7 -7 -8 -9 -10 -11
leaf_value=0 -0.063671595915340329 0 0 0 0.046832729032231742 0 0.051475778053325996 0 0 -0.052944179545559265
leaf_weight=3.2019681110978118 38.814101691357791 1.3418641369789854 8.4869222939014417 3.3278290182352093 12.050808932632206 5.0024602934718123 45.084624044597149 1.4459524601697911 3.9270565193146458 7.0819233804941177
leaf_count=9 904 13 46 13 59 49 133 9 50 63
internal_value=0 0.0274301 0.0412304 0 0.0254732 -0.0166649 0.0486185 0.0398896 -0.0301708 -0.039872
internal_weight=129.766 90.9514 56.7735 34.1779 16.8246 17.3533 48.2866 13.4968 12.3508 8.42379
internal_count=1348 444 188 256 81 175 142 68 126 76
is_linear=0
shrinkage=0.0983118


Tree=10
num_leaves=11
num_cat=0
split_feature=0 3 3 1 0 0 0 0 1 1
split_gain=20.1516 2.97231 1.33484 0.660144 0.556644 0.564058 0.59134 0.370903 0.276081 0.0602503
threshold=1521.7500000000002 4.8333333333333348 4.166666666666667 0.28183333333333377 2078.2500000000005 1868.2500000000002 1823.2500000000002 2000.2500000000002 0.096666666666666304 5.6411666666666642
decision_type=2 2 2 2 2 2 2 2 2 2
left_child=2 4 -1 8 5 6 -2 -5 -3 -4
right_child=1 3 9 7 -6 -7 -8 -9 -10 -11
leaf_value=0 0.028034304987173464 0 -0.067229037411039166 -0.023770630139668091 0 0.064866189703094171 0 0 0.027665289131043186 0
leaf_weight=1.9094009548425663 42.065675016492605 3.827341206371786 33.102028368972242 13.607786658219991 3.1029979214072219 15.376476362347601 6.0842553451657286 1.3357319012284268 5.3355609439313412 0.95612490177154441
leaf_count=6 154 34 804 206 11 42 16 10 41 24
internal_value=0 0.0246919 -0.061626 0 0.0354283 0.0374125 0.0238915 -0.0169321 0.0139557 -0.0661698
internal_weight=126.703 90.7358 35.9676 24.1064 66.6294 63.5264 48.1499 14.9435 9.1629 34.0582
internal_count=1348 514 834 291 223 212 170 216 75 828
is_linear=0
shrinkage=0.0983118


Tree=11
num_leaves=11
num_cat=0
split_feature=3 0 3 2 1 0 1 0 1 1
split_gain=17.7476 1.78093 1.71797 0.595777 0.261385 0.205729 0.0766779 0.350281 0.142596 0.0174242
threshold=6.166666666666667 1799.2500000000002 4.5000000000000009 2.5000000000000004 -1.7756666666666636 1524.7500000000002 0.40333333333333604 1749.7500000000002 0.10516666666666902 0.78183333333333382
decision_type=2 2 2 2 2 2 2 2 2 2
left_child=2 3 5 -2 -5 -1 7 -4 -9 -8
right_child=1 -3 6 4 -6 -7 9 8 -10 -11
leaf_value=0 0 0 0 0 -0.058516273377375382 0.036234069553145357 -0.010025251824539233 0 0.028483199663065221 0
leaf_weight=2.1406120210885993 0.73295821622013946 2.9901745840907088 2.8277055360376853 0.50388775020837684 39.112339539453387 59.892050297930837 5.0741875208914271 1.4041918814182279 5.6369225010275841 2.3070880603045225
leaf_count=8 7 27 24 7 975 194 55 8 23 20
internal_value=0 -0.0501541 0.0276005 -0.0558459 -0.0576069 0.0351617 0 0.0056398 0.0219967 -0.00711671
internal_weight=122.622 43.3394 79.2828 40.3492 39.6162 62.0327 17.2501 9.86882 7.04111 7.38128
internal_count=1348 1016 332 989 982 202 130 55 31 75
is_linear=0
shrinkage=0.0983118


Tree=12
num_leaves=11
num_cat=0
split_feature=0 3 0 0 0 0 0 3 2 3
split_gain=15.0839 2.65411 0.391236 1.41052 0.701046 0.236644 0.226578 0.277372 0.137934 0.151528
threshold=1506.7500000000002 4.5000000000000009 1959.0000000000002 1893.0000000000002 2078.2500000000005 1749.7500000000002 1915.5000000000002 7.416666666666667 2.5000000000000004 10.41666666666667
decision_type=2 2 2 2 2 2 2 2 2 2
left_child=-1 2 3 -2 -4 8 7 -7 -3 -10
right_child=1 5 4 -5 -6 6 -8 -9 9 -11
leaf_value=-0.060251347275796931 0.0273062916119787 0 0.081340295089317366 -0.010793514820065136 0 0.024481632988661583 0 0 -0.019029762926147394 0
leaf_weight=29.482913970947266 48.535722816362977 1.0827116295695329 6.7812534272670728 3.0592078343033782 2.6462704166769981 7.7380488943308574 4.295602072030305 1.0416326355189083 12.966682768426834 1.7192722037434567
leaf_count=786 165 8 14 12 10 41 36 23 215 38
internal_value=0 0.0200564 0.0317233 0.0211962 0.0648524 0 0.0033598 0.0157715 -0.0113971 -0.0150337
internal_weight=119.349 89.8664 61.0225 51.5949 9.42752 28.844 13.0753 8.77968 15.7687 14.686
internal_count=1348 562 201 177 24 361 100 64 261 253
is_linear=0
shrinkage=0.0983118


Tree=13
num_leaves=11
num_cat=0
split_feature=0 2 3 1 1 2 2 1 0 0
split_gain=13.1825 2.38532 1.22963 0.46551 0.146179 0.0552494 0.0314895 0.236989 0.280132 0.10801
threshold=1550.2500000000002 2.5000000000000004 4.5000000000000009 -2.4590000000000001 0.48250000000000176 1.5000000000000002 13.500000000000002 0.78183333333333382 1688.2500000000002 1860.0000000000002
decision_type=2 2 2 2 2 2 2 2 2 2
left_child=1 -1 4 -3 -2 -4 7 8 -7 -10
right_child=2 3 5 -5 -6 6 -8 -9 9 -11
leaf_value=0 0.032123535016635202 0 0.013829288389325671 -0.057223239426602665 0 0 0 0 -0.030232572510299142 0
leaf_weight=2.7091867737472048 52.080560320988297 0.31250318884849448 2.1449743807315853 34.122275118716061 2.7124661952257147 5.1399707775563099 2.1890996862202874 3.4806689945980898 6.2962728347629291 4.6338969469070435
leaf_count=12 174 2 6 865 14 69 29 53 87 37
internal_value=0 -0.0477867 0.022766 -0.0558308 0.0309184 0 0 -0.00388181 -0.0124588 -0.0214009
internal_weight=115.822 37.144 78.6779 34.4348 54.793 23.8849 21.7399 19.5508 16.0701 10.9302
internal_count=1348 879 469 867 188 281 275 246 193 124
is_linear=0
shrinkage=0.0983118


Tree=14
num_leaves=11
num_cat=0
split_feature=3 0 3 2 1 0 1 0 0 3
split_gain=11.3832 1.78848 0.736779 0.473798 0.266657 1.34434 0.77564 1.14684 0.889442 0.659808
threshold=7.8333333333333348 1652.2500000000002 1.8333333333333337 8.5000000000000018 0.19616666666666543 1776.7500000000002 0.39700000000000085 1773.7500000000002 1799.2500000000002 3.166666666666667
decision_type=2 2 2 2 2 2 2 2 2 2
left_child=1 2 -1 -4 5 -3 7 9 -8 -6
right_child=-2 4 3 -5 6 -7 8 -9 -10 -11
leaf_value=0.034233248068881728 -0.048697900507709183 0 -0.019351702632278478 0 0.043541676760203034 0.05771274833437736 0 -0.032906680897198871 0.044283597315639682 0
leaf_weight=3.5230541899800327 32.349503429606557 11.905332908034326 17.546493209898475 2.6697498001158229 4.1780439615249652 18.03643786907196 3.6385134309530249 7.0303089283406734 8.7809074446558935 3.3179723992943764
leaf_count=10 904 46 153 26 9 55 40 39 44 22
internal_value=0 0.019771 0 -0.0103477 0.0291997 0.0401204 0.00931741 0 0.0275147 0.0184463
internal_weight=112.976 80.6268 23.7393 20.2162 56.8875 29.9418 26.9457 14.5263 12.4194 7.49602
internal_count=1348 444 189 179 255 101 154 70 84 31
is_linear=0
shrinkage=0.0983118


Tree=15
num_leaves=11
num_cat=0
split_feature=0 2 1 3 0 0 2 1 1 1
split_gain=10.0765 1.34056 0.913496 0.684047 0.620839 0.864409 0.715813 0.620417 0.153851 0.0887391
threshold=1524.7500000000002 3.5000000000000004 0.48250000000000176 4.166666666666667 1749.7500000000002 1779.7500000000002 7.5000000000000009 0.5038333333333328 -1.7756666666666636 0.54449999999999943
decision_type=2 2 2 2 2 2 2 2 2 2
left_child=3 2 -2 -1 6 -6 7 -3 -5 -8
right_child=1 4 -4 8 5 -7 9 -9 -10 -11
leaf_value=0 0.033288703463335463 -0.047238105582708141 0 0 0.049109238987524506 0 0.013587905244700113 0 -0.050758084258487476 0
leaf_weight=2.0601111501455334 44.74822435900569 5.9509896915406006 2.3560786265879861 0.45747500285506859 4.5552425272762767 10.520740173757074 3.9981991518288842 3.5418369546532631 29.228629062883552 1.912690690718591
leaf_count=7 164 59 22 7 29 73 40 61 826 60
internal_value=0 0.0190929 0.0294714 -0.0461101 0 0.0163284 -0.0106146 -0.0293368 -0.0498849 0
internal_weight=109.33 77.584 47.1043 31.7462 30.4797 15.076 15.4037 9.49283 29.6861 5.91089
internal_count=1348 508 186 840 322 102 220 120 833 100
is_linear=0
shrinkage=0.0983118


Tree=16
num_leaves=11
num_cat=0
split_feature=0 1 0 3 0 3 1 1 0 3
split_gain=8.73845 1.51935 0.685321 0.611363 0.577385 0.544886 0.95786 0.444543 0.17716 0.44414
threshold=1524.7500000000002 0.1189999999999997 1755.7500000000002 4.166666666666667 1679.2500000000002 4.8333333333333348 0.26899999999999835 0.23166666666666677 1619.2500000000002 6.8333333333333348
decision_type=2 2 2 2 2 2 2 2 2 2
left_child=3 -2 4 -1 8 6 -4 -6 -3 -10
right_child=1 2 5 -5 7 -7 -8 -9 9 -11
leaf_value=0 0.035932882638558823 -0.0030976088350768241 0 -0.046987106692328258 0 0 0.04339342713463111 -0.051587248718897694 0.029302040776458694 0
leaf_weight=2.0518815517425564 29.800425348803401 9.9312081523239666 6.4717253744602266 29.055923715233803 1.9589865114539851 6.3668536413460961 10.415474481880663 3.2441966310143471 6.2284639850258818 1.3701609577983616
leaf_count=7 126 105 27 833 19 66 37 46 37 45
internal_value=0 0.018009 0.00186091 -0.043348 -0.00452514 0.0162437 0.0256908 -0.0321825 0 0.0139766
internal_weight=106.895 75.7875 45.9871 31.1078 22.733 23.2541 16.8872 5.20318 17.5298 7.59862
internal_count=1348 508 382 840 252 130 64 65 187 82
is_linear=0
shrinkage=0.0983118


Tree=17
num_leaves=11
num_cat=0
split_feature=3 0 0 1 3 3 3 1 1 1
split_gain=8.09994 1.10633 0.172466 0.147572 0.104972 0.177081 0.23314 0.0938803 0.0865702 0.0520456
threshold=7.8333333333333348 1652.2500000000002 2044.5000000000002 -0.052000000000001892 1.8333333333333337 3.8333333333333335 4.5000000000000009 0.48250000000000176 0.10850000000000172 -2.4590000000000001
decision_type=2 2 2 2 2 2 2 2 2 2
left_child=1 4 3 -3 -1 8 7 -7 -6 -8
right_child=-2 2 -4 -5 5 6 9 -9 -10 -11
leaf_value=0.014293631123444958 -0.041929336281986841 0 0 0.028497111107956122 -0.028245418947709156 0.029914464749912138 0 0 0 -0.0098602258770109572
leaf_weight=3.048523515462878 30.735506512224674 1.7657248303294171 5.4904097691178313 44.792350318282843 2.8721861615777033 2.678623875603078 0.40808197855949657 1.3451694101095197 5.4349623546004295 6.4248786419630024
leaf_count=10 904 9 25 221 16 10 3 9 23 118
internal_value=0 0.0175663 0.0253291 0.0274134 0 -0.00361931 0 0.0210454 -0.0148365 -0.00496699
internal_weight=104.996 74.2609 52.0485 46.5581 22.2124 19.1639 10.8568 4.02379 8.30715 6.83296
internal_count=1348 444 255 230 189 179 140 19 39 121
is_linear=0
shrinkage=0.0983118


Tree=18
num_leaves=11
num_cat=0
split_feature=3 3 3 1 3 1 0 0 1 0
split_gain=6.75691 1.09628 0.380082 0.673028 0.170483 0.0793234 0.065627 0.0465544 0.082976 0.0420256
threshold=7.8333333333333348 4.5000000000000009 12.833333333333334 2.2203333333333322 12.500000000000002 2.2396666666666651 1679.2500000000002 1619.2500000000002 -2.4590000000000001 1915.5000000000002
decision_type=2 2 2 2 2 2 2 2 2 2
left_child=1 -1 4 6 -2 -5 -4 8 -3 -9
right_child=2 7 3 5 -6 -7 -8 9 -10 -11
leaf_value=0.023705362913230263 -0.013696108221205292 0 -0.069222642626928205 0 0 -0.015503397500658917 0 0.0057755184184420409 -0.014936387939723142 0
leaf_weight=52.232245486229658 12.89150353241712 0.40320140868425358 11.062130733393129 1.0842532776296132 2.0819729603826991 2.5425889734178782 0.33420992270112115 11.529900033026932 4.9644863363355425 4.2500041127204886
leaf_count=202 381 3 382 4 40 87 10 105 98 36
internal_value=0 0.016071 -0.0388231 -0.0559013 -0.00755621 0 -0.0678685 0 -0.00864914 0
internal_weight=103.376 73.3798 29.9967 15.0232 14.9735 3.62684 11.3963 21.1476 5.36769 15.7799
internal_count=1348 444 904 483 421 91 392 242 101 141
is_linear=0
shrinkage=0.0983118


Tree=19
num_leaves=9
num_cat=0
split_feature=3 0 3 1 0 3 0 1
split_gain=7.06226 1.1446 0.286571 0.127609 0.0466064 0.257982 0.0115747 0.000602016
threshold=7.8333333333333348 1652.2500000000002 2.166666666666667 0.024166666666670705 1493.2500000000002 10.833333333333334 1494.7500000000002 -0.052000000000001892
decision_type=2 2 2 2 2 2 2 2
left_child=1 2 3 -1 5 -2 -6 -3
right_child=4 7 -4 -5 6 -7 -8 -9
leaf_value=0.025267644647655005 0 0 -0.009845853827831175 0 0 -0.060557085833106518 -0.0036979974060732178 0.0233099011534968
leaf_weight=2.9802363365888622 2.094254235737032 1.7018688246607769 16.757243417203426 1.8466004878282545 0.33208886906504531 14.09321021940559 8.0478370757773501 51.268245284445584
leaf_count=10 80 9 173 6 7 615 202 246
internal_value=0 0.0150969 0 0.0140629 -0.045026 -0.055343 -0.000882717 0.0229346
internal_weight=99.1216 74.5542 21.5841 4.82684 24.5674 16.1875 8.37993 52.9701
internal_count=1348 444 189 16 904 695 209 255
is_linear=0
shrinkage=0.0983118


Tree=20
num_leaves=11
num_cat=0
split_feature=3 3 0 0 0 0 0 1 0 1
split_gain=6.33834 0.928714 0.124488 0.533254 0.174827 0.0368964 0.0717571 0.0498064 0.023255 0.00437421
threshold=7.8333333333333348 4.5000000000000009 1959.0000000000002 1893.0000000000002 2078.2500000000005 1749.7500000000002 1915.5000000000002 -2.4590000000000001 1768.5000000000002 -1.7756666666666636
decision_type=2 2 2 2 2 2 2 2 2 2
left_child=1 2 3 -1 -4 7 -7 -3 9 -2
right_child=8 5 4 -5 -6 6 -8 -9 -10 -11
leaf_value=0.01612086157877661 0 0 0.057811213268908243 0 0 0.0093617078426640118 0 -0.0091222936413202938 0 -0.045053770529013243
leaf_weight=42.17517215013504 0.26736490800977364 0.39066503942012865 5.552018925547598 2.4631768912076941 2.8177968338131905 7.2662739157676679 4.2408359497785568 9.422969738021493 0.65845629572868247 22.361636190675199
leaf_count=166 5 3 14 12 10 42 36 161 12 887
internal_value=0 0.0140612 0.0210613 0.0114863 0.0459383 0 0 -0.00583868 -0.0440473 -0.044774
internal_weight=97.6164 74.3289 53.0082 44.6383 8.36982 21.3207 11.5071 9.81363 23.2875 22.629
internal_count=1348 444 202 178 24 242 78 164 904 892
is_linear=0
shrinkage=0.0983118


Tree=21
num_leaves=11
num_cat=0
split_feature=0 0 1 3 0 3 1 3 0 0
split_gain=5.45126 1.09118 0.462243 0.682528 0.427 0.249291 0.178064 0.159047 0.128366 0.127819
threshold=1506.7500000000002 1772.2500000000002 0.34466666666666396 2.8333333333333335 1656.7500000000002 4.5000000000000009 0.2553333333333328 6.5000000000000009 1512.7500000000002 1508.2500000000002
decision_type=2 2 2 2 2 2 2 2 2 2
left_child=-1 2 3 -2 6 -6 8 -3 -5 -4
right_child=1 7 9 4 5 -7 -8 -9 -10 -11
leaf_value=-0.046815921824167953 0 0.026989474347703345 0 0 0.047204081418724328 0 0.021943296134336709 0 -0.01577743766601046 -0.016717508911266301
leaf_weight=18.615596181247383 13.962689839303495 30.313020378351212 0.47551941312849422 0.8369885683059709 6.141128331422804 3.0822927309200168 2.6295790448784828 2.0540017168968907 4.9123804643750191 12.629350236617027
leaf_count=786 49 128 8 8 21 43 14 28 46 217
internal_value=0 0.0116086 0 0.00786504 0.0216948 0.0358931 0 0.0252299 -0.00473214 -0.0134156
internal_weight=95.6525 77.037 44.6699 31.5651 17.6024 9.22342 8.37895 32.367 5.74937 13.1049
internal_count=1348 562 406 181 132 64 68 156 54 225
is_linear=0
shrinkage=0.0983118


Tree=22
num_leaves=11
num_cat=0
split_feature=3 1 0 0 3 0 0 1 3 0
split_gain=5.11606 0.951837 0.339218 0.367828 0.309765 0.261339 0.251581 0.519609 0.478451 0.241948
threshold=7.8333333333333348 0.1189999999999997 1840.5000000000002 1980.7500000000002 4.8333333333333348 1550.2500000000002 1679.2500000000002 0.66033333333333166 3.166666666666667 1652.2500000000002
decision_type=2 2 2 2 2 2 2 2 2 2
left_child=1 5 6 4 -4 -1 9 8 -8 -3
right_child=-2 2 3 -5 -6 -7 7 -9 -10 -11
leaf_value=0 -0.040586428249483518 0 0.034995359981892918 0 0 0.029852009233554525 0 0 -0.042074359899880343 0.024487648820197789
leaf_weight=2.5876160999760058 22.152110504452139 13.380920587107545 7.2086525037884694 5.9043895527720442 1.8498854450881479 25.854770001024008 3.9648883901536447 1.063016615808009 6.2924492629244924 3.2525936421006909
leaf_count=19 904 144 26 32 19 102 13 7 60 22
internal_value=0 0.0128508 0 0.0140278 0.0261301 0.0269266 -0.00268929 -0.0148481 -0.026505 0
internal_weight=93.5113 71.3592 42.9168 14.9629 9.05854 28.4424 27.9539 11.3204 10.2573 16.6335
internal_count=1348 444 323 77 45 121 246 80 73 166
is_linear=0
shrinkage=0.0983118


Tree=23
num_leaves=11
num_cat=0
split_feature=0 3 3 2 0 1 0 0 0 0
split_gain=4.43835 0.898538 0.413144 1.40385 0.88179 0.331115 0.0657971 0.0454901 0.847768 0.162247
threshold=1550.2500000000002 4.166666666666667 4.5000000000000009 2.5000000000000004 1665.7500000000002 -2.4590000000000001 1641.0000000000002 1679.2500000000002 1772.2500000000002 2061.0000000000005
decision_type=2 2 2 2 2 2 2 2 2 2
left_child=1 -1 3 7 6 -3 -5 -2 -9 -10
right_child=2 5 -4 4 -6 -7 -8 8 9 -11
leaf_value=0 0.0069930725721255764 0 0 0.010216077527634334 0.051266601838426622 -0.0446598206541352 -0.0068947430218428106 -0.036950623673142946 0.012182601341140414 0
leaf_weight=3.1813912019133594 8.3434978201985377 0.36902952194214478 20.604176657740027 4.4060781709849861 13.700861044228075 20.99046298395842 1.6361319012939928 5.2430166527628925 10.940768726170061 2.2280845344066611
leaf_count=13 32 3 281 23 53 863 10 22 40 8
internal_value=0 -0.0352352 0.0130998 0.0182016 0.0378346 -0.0426102 0 0 0 0.00331346
internal_weight=91.6435 24.5409 67.1026 46.4984 19.7431 21.3595 6.04221 26.7554 18.4119 13.1689
internal_count=1348 879 469 188 86 866 33 102 70 48
is_linear=0
shrinkage=0.0983118


Tree=24
num_leaves=11
num_cat=0
split_feature=3 0 0 0 1 1 2 1 1 1
split_gain=3.8451 1.27384 0.835177 0.556858 0.547984 0.365803 0.303359 0.281813 0.215914 0.0472804
threshold=7.8333333333333348 1730.2500000000002 1682.2500000000002 1652.2500000000002 0.19616666666666543 0.39700000000000085 2.5000000000000004 0.34466666666666396 0.050999999999999553 0.26899999999999835
decision_type=2 2 2 2 2 2 2 2 2 2
left_child=1 2 3 -1 -3 7 -4 9 -5 -6
right_child=-2 4 6 8 5 -7 -8 -9 -10 -11
leaf_value=0 -0.036018848666751486 0.037980362206778563 -0.049851133956534906 0 0 0.019549216119504043 0 -0.032923740387561469 0.038602407876782208 0.0089961049376393043
leaf_weight=19.947122586891059 21.202333793975413 17.671923696994781 3.4984090253710738 1.4252602383494366 3.3392866738140601 8.6040505925193411 3.4110392760485411 1.8655969537794579 4.8360781315714121 4.9993676953017712
leaf_count=189 904 69 12 4 18 56 29 18 28 21
internal_value=0 0.0112035 0 0.00511214 0.0238557 0 -0.0312305 0 0.0296758 0
internal_weight=90.8005 69.5981 33.1179 26.2085 36.4802 18.8083 6.90945 10.2043 6.26134 8.33865
internal_count=1348 444 262 221 182 113 41 57 32 39
is_linear=0
shrinkage=0.0983118


Tree=25
num_leaves=11
num_cat=0
split_feature=0 3 0 2 3 0 2 0 3 1
split_gain=3.5315 0.722348 0.720248 0.603101 0.792901 0.464475 1.2991 0.438998 0.755294 0.268037
threshold=1550.2500000000002 4.166666666666667 1772.2500000000002 3.5000000000000004 3.5000000000000004 1682.2500000000002 2.5000000000000004 1662.7500000000002 2.166666666666667 -2.4590000000000001
decision_type=2 2 2 2 2 2 2 2 2 2
left_child=1 -1 5 4 -4 7 -7 -2 -9 -3
right_child=2 9 3 -5 -6 6 -8 8 -10 -11
leaf_value=0 0 0 0.045355484991654024 0 0 -0.04884338315513545 0 0 0.053592495181573753 -0.040781602995066113
leaf_weight=3.1533702388405827 17.005005108192567 0.35155522823334351 13.727366007864481 10.800060739740728 6.0549136772751799 5.4278958886861792 8.3885791366919857 0.37844502925872703 4.2603609040379524 20.150099274702367
leaf_count=13 162 3 45 79 32 22 95 1 33 863
internal_value=0 -0.0320841 0.0116917 0.0226896 0.0327461 0 -0.0115728 0.0107001 0.0358539 -0.0388973
internal_weight=89.6977 23.655 66.0426 30.5823 19.7823 35.4603 13.8165 21.6438 4.63881 20.5017
internal_count=1348 879 469 156 77 313 117 196 34 866
is_linear=0
shrinkage=0.0983118


Tree=26
num_leaves=9
num_cat=0
split_feature=0 2 3 2 2 2 1 0
split_gain=3.21745 0.68609 0.43669 0.58437 1.02608 0.426388 0.112532 0.0463419
threshold=1550.2500000000002 4.5000000000000009 4.5000000000000009 2.5000000000000004 3.5000000000000004 6.5000000000000009 -2.4590000000000001 1539.7500000000002
decision_type=2 2 2 2 2 2 2 2
left_child=1 -1 3 -2 -5 -6 -3 -8
right_child=2 6 -4 4 5 -7 7 -9
leaf_value=0 0 0 0 0.053505750835706217 -0.0047809132414492767 0.033433668901286261 -0.04002649844501107 0
leaf_weight=4.12589421309531 25.335430767387152 0.11354718357325211 20.123961468227208 9.1642532274127024 7.405074041336773 2.8749578669667244 18.678022846579552 0.31181907560676236
leaf_count=39 102 1 281 32 44 10 828 11
internal_value=0 -0.030898 0.0112544 0.0166037 0.0300739 0 -0.0385988 -0.0394192
internal_weight=88.133 23.2293 64.9037 44.7797 19.4443 10.28 19.1034 18.9898
internal_count=1348 879 469 188 86 54 840 839
is_linear=0
shrinkage=0.0983118


Tree=27
num_leaves=11
num_cat=0
split_feature=3 0 0 2 1 1 1 1 1 3
split_gain=2.94551 0.687503 0.31635 0.278517 0.175035 0.355644 0.150739 0.132178 0.095787 0.0425507
threshold=6.5000000000000009 1652.2500000000002 1768.5000000000002 2.5000000000000004 0.10850000000000172 0.39700000000000085 -1.0000000180025095e-35 0.34466666666666396 -2.4590000000000001 1.8333333333333337
decision_type=2 2 2 2 2 2 2 2 2 2
left_child=1 9 3 -2 6 7 -3 -6 -5 -1
right_child=2 4 -4 8 5 -7 -8 -9 -10 -11
leaf_value=0 0 0 0 0 0 0.018841430746275957 0.031839974284496239 -0.021527277855334218 -0.035053005873081619 -0.0050972485998863424
leaf_weight=2.5158167406916645 0.39483267068863526 2.144509561359885 1.9900721898302425 0.11197694391012802 14.40234367921949 9.3784790970385057 16.766679026186466 2.1095305681228629 21.458992457948622 15.18155327439308
leaf_count=10 5 12 29 1 69 58 61 20 955 128
internal_value=0 0.0112431 -0.0288564 -0.0322675 0.0179397 0.00214177 0.0287773 0 -0.0343635 0
internal_weight=86.4548 62.4989 23.9559 21.9658 44.8015 25.8904 18.9112 16.5119 21.571 17.6974
internal_count=1348 358 990 961 220 147 73 89 956 138
is_linear=0
shrinkage=0.0983118


Tree=28
num_leaves=9
num_cat=0
split_feature=0 0 3 1 3 0 0 0
split_gain=2.58283 0.577596 0.537264 0.203427 0.195345 0.0218795 0.0710316 0.0369821
threshold=1550.2500000000002 1730.2500000000002 4.166666666666667 -2.4590000000000001 6.5000000000000009 1682.2500000000002 1662.7500000000002 1641.0000000000002
decision_type=2 2 2 2 2 2 2 2
left_child=2 5 -1 -4 -3 6 7 -2
right_child=1 4 3 -5 -6 -7 -8 -9
leaf_value=0 0 0.020013031308421927 0 -0.036168129451239837 0 -0.0056801956072248623 0.012278314825545034 -0.0091247120375800815
leaf_weight=3.1298672109842327 13.185285273008057 34.432107236236334 0.33115994185209885 18.879192408639934 2.6106269140727809 5.7757749678567043 3.9348362307064226 3.6458620401099315
leaf_count=13 117 159 3 863 59 55 34 45
internal_value=0 0.0101209 -0.0282799 -0.0344573 0.0179634 0 0.000444761 0
internal_weight=85.9247 63.5845 22.3402 19.2104 37.0427 26.5418 20.766 16.8311
internal_count=1348 469 879 866 218 251 196 162
is_linear=0
shrinkage=0.0983118


Tree=29
num_leaves=9
num_cat=0
split_feature=0 0 3 1 3 0 2 0
split_gain=2.26021 0.50298 0.469206 0.180384 0.165585 0.091378 0.115266 0.058042
threshold=1550.2500000000002 1730.2500000000002 4.166666666666667 -2.4590000000000001 6.5000000000000009 1682.2500000000002 3.5000000000000004 1652.2500000000002
decision_type=2 2 2 2 2 2 2 2
left_child=2 5 -1 -4 -3 7 -7 -2
right_child=1 4 3 -5 -6 6 -8 -9
leaf_value=0 0 0.018650273205797277 0 -0.034225027459580108 0 0 -0.025181942572167944 0.010224674530309617
leaf_weight=3.1176844611763981 14.575023988261824 34.339039940387011 0.32400716096163407 18.489954175893214 2.5624894443899384 3.6891333013772956 2.3431281186640263 5.6850785887800148
leaf_count=13 143 159 3 863 59 21 34 53
internal_value=0 0.00945527 -0.0267346 -0.0325924 0.0167771 0 -0.0108214 0.00219804
internal_weight=85.1255 63.1939 21.9316 18.814 36.9015 26.2924 6.03226 20.2601
internal_count=1348 469 879 866 218 251 55 196
is_linear=0
shrinkage=0.0983118


Tree=30
num_leaves=9
num_cat=0
split_feature=3 0 0 1 1 3 3 3
split_gain=2.05401 0.538514 0.340423 0.0814338 0.035292 0.0352468 0.181256 0.0219313
threshold=6.8333333333333348 1652.2500000000002 1768.5000000000002 -2.4590000000000001 -0.052000000000001892 1.8333333333333337 3.8333333333333335 4.5000000000000009
decision_type=2 2 2 2 2 2 2 2
left_child=1 5 3 -2 -3 -1 -7 -8
right_child=2 4 -4 -5 -6 6 7 -9
leaf_value=0 0 0 0 -0.030323470983346475 0.015753658094026114 -0.016223396066131209 0.0072976540723196353 0
leaf_weight=2.4280876889824894 0.19010761380196228 1.6027074456214894 1.7663724338635791 19.713190886657685 42.684993615373969 7.3032689690589896 3.3330524899065477 4.7515790089964867
leaf_count=10 2 9 27 941 217 39 19 84
internal_value=0 0.00911026 -0.0256164 -0.0295416 0.0152228 0 -0.00460925 0
internal_weight=83.7734 62.1037 21.6697 19.9033 44.2877 17.816 15.3879 8.08463
internal_count=1348 378 970 943 226 152 142 103
is_linear=0
shrinkage=0.0983118


Tree=31
num_leaves=11
num_cat=0
split_feature=0 2 3 2 3 3 3 2 0 3
split_gain=1.8819 0.394259 0.338711 0.20546 0.804212 1.14628 0.590037 2.08081 0.484352 0.591247
threshold=1550.2500000000002 4.5000000000000009 4.5000000000000009 2.5000000000000004 1.4166666666666667 4.166666666666667 3.5000000000000004 3.5000000000000004 1679.2500000000002 3.166666666666667
decision_type=2 2 2 2 2 2 2 2 2 2
left_child=1 -1 3 4 -2 8 7 -5 -6 -10
right_child=2 -3 -4 6 5 -7 -8 -9 9 -11
leaf_value=0 0.032521443542967064 -0.030813783226711994 0 0.072283622832479327 0 0.03015805719263184 0 0 -0.049153830083014473 0
leaf_weight=3.8370481049641993 6.4139733687043217 17.515359189826995 19.331121158320457 6.2099840790033358 4.3940044604241875 2.551036909222602 8.4287889488041383 3.3288165517151356 7.1632475629448873 3.6966177299618721
leaf_count=39 25 840 281 18 21 8 47 21 32 16
internal_value=0 -0.0247118 0.00874529 0.0136903 0 -0.00406354 0.0231938 0.0392807 -0.0230863 -0.033813
internal_weight=82.87 21.3524 61.5176 42.1865 24.2189 17.8049 17.9676 9.5388 15.2539 10.8599
internal_count=1348 879 469 188 102 77 86 39 69 48
is_linear=0
shrinkage=0.0983118


Tree=32
num_leaves=11
num_cat=0
split_feature=0 2 0 3 1 2 0 3 3 3
split_gain=1.65361 0.552847 0.228055 0.196265 0.591587 0.451314 0.435753 0.258184 0.242441 0.20192
threshold=1484.2500000000002 1.5000000000000002 1626.7500000000002 4.5000000000000009 0.050999999999999553 13.500000000000002 2160.7500000000005 1.8333333333333337 3.166666666666667 10.833333333333334
decision_type=2 2 2 2 2 2 2 2 2 2
left_child=-1 2 -2 4 8 6 9 -6 -3 -5
right_child=1 3 -4 5 7 -7 -8 -9 -10 -11
leaf_value=-0.033925225220542039 0 -0.023322094907231038 0.027003333508568542 -0.024554369731332105 0 0.0022200265855988406 0 0.019808362291826476 0 0
leaf_weight=11.242354484507812 2.1478568799793711 3.8487815037369755 12.855896029621361 17.957537141628574 1.4099287986755396 2.8657810399308792 0.83498626947402854 23.051884969696403 2.0242797136306763 3.1362753999419501
leaf_count=660 11 15 55 333 6 63 4 110 11 80
internal_value=0 0.00569868 0.022097 0 0.00619183 -0.00527946 -0.014962 0.0164607 -0.00395902 -0.020644
internal_weight=81.3756 70.1332 15.0038 55.1295 30.3349 24.7946 21.9288 24.4618 5.87306 21.0938
internal_count=1348 688 66 622 142 480 417 116 26 413
is_linear=0
shrinkage=0.0983118


end of trees

feature_importances:
Column_0=126
Column_3=83
Column_1=78
Column_2=30

parameters:
[boosting: gbdt]
[objective: lambdarank]
[metric: ndcg]
[tree_learner: serial]
[device_type: cpu]
[data_sample_strategy: bagging]
[data: ]
[valid: ]
[num_iterations: 33]
[learning_rate: 0.0983118]
[num_leaves: 11]
[num_threads: 14]
[seed: 0]
[deterministic: 0]
[force_col_wise: 0]
[force_row_wise: 0]
[histogram_pool_size: -1]
[max_depth: 8]
[min_data_in_leaf: 7]
[min_sum_hessian_in_leaf: 0.001]
[bagging_fraction: 1]
[pos_bagging_fraction: 1]
[neg_bagging_fraction: 1]
[bagging_freq: 0]
[bagging_seed: 3]
[bagging_by_query: 0]
[feature_fraction: 1]
[feature_fraction_bynode: 1]
[feature_fraction_seed: 2]
[extra_trees: 0]
[extra_seed: 6]
[early_stopping_round: 0]
[early_stopping_min_delta: 0]
[first_metric_only: 0]
[max_delta_step: 0]
[lambda_l1: 1.99023]
[lambda_l2: 0.647177]
[linear_lambda: 0]
[min_gain_to_split: 0]
[drop_rate: 0.1]
[max_drop: 50]
[skip_drop: 0.5]
[xgboost_dart_mode: 0]
[uniform_drop: 0]
[drop_seed: 4]
[top_rate: 0.2]
[other_rate: 0.1]
[min_data_per_group: 100]
[max_cat_threshold: 32]
[cat_l2: 10]
[cat_smooth: 10]
[max_cat_to_onehot: 4]
[top_k: 20]
[monotone_constraints: ]
[monotone_constraints_method: basic]
[monotone_penalty: 0]
[feature_contri: ]
[forcedsplits_filename: ]
[refit_decay_rate: 0.9]
[cegb_tradeoff: 1]
[cegb_penalty_split: 0]
[cegb_penalty_feature_lazy: ]
[cegb_penalty_feature_coupled: ]
[path_smooth: 0]
[interaction_constraints: ]
[verbosity: -1]
[saved_feature_importance_type: 0]
[use_quantized_grad: 0]
[num_grad_quant_bins: 4]
[quant_train_renew_leaf: 0]
[stochastic_rounding: 1]
[linear_tree: 0]
[max_bin: 255]
[max_bin_by_feature: ]
[min_data_in_bin: 3]
[bin_construct_sample_cnt: 200000]
[data_random_seed: 1]
[is_enable_sparse: 1]
[enable_bundle: 1]
[use_missing: 1]
[zero_as_missing: 0]
[feature_pre_filter: 1]
[pre_partition: 0]
[two_round: 0]
[header: 0]
[label_column: ]
[weight_column: ]
[group_column: ]
[ignore_column: ]
[categorical_feature: ]
[forcedbins_filename: ]
[precise_float_parser: 0]
[parser_config_file: ]
[objective_seed: 5]
[num_class: 1]
[is_unbalance: 0]
[scale_pos_weight: 1]
[sigmoid: 1]
[boost_from_average: 1]
[reg_sqrt: 0]
[alpha: 0.9]
[fair_c: 1]
[poisson_max_delta_step: 0.7]
[tweedie_variance_power: 1.5]
[lambdarank_truncation_level: 30]
[lambdarank_norm: 1]
[label_gain: ]
[lambdarank_position_bias_regularization: 0]
[eval_at: 3,5,10]
[multi_error_top_k: 1]
[auc_mu_weights: ]
[num_machines: 1]
[local_listen_port: 12400]
[time_out: 120]
[machine_list_filename: ]
[machines: ]
[gpu_platform_id: -1]
[gpu_device_id: -1]
[gpu_use_dp: 0]
[num_gpu: 1]

end of parameters

pandas_categorical:null
